digraph Tree {
node [shape=box, style="filled, rounded", color="black", fontname=helvetica] ;
edge [fontname=helvetica] ;
0 [label="petal length (cm) <= 2.6\ngini = 0.67\nsamples = 93\nvalue = [53, 48, 49]\nclass = setosa", fillcolor="#fefaf7"] ;
1 [label="gini = 0.0\nsamples = 30\nvalue = [53, 0, 0]\nclass = setosa", fillcolor="#e58139"] ;
0 -> 1 [labeldistance=2.5, labelangle=45, headlabel="True"] ;
2 [label="petal width (cm) <= 1.7\ngini = 0.5\nsamples = 63\nvalue = [0, 48, 49]\nclass = virginica", fillcolor="#fcfbfe"] ;
0 -> 2 [labeldistance=2.5, labelangle=-45, headlabel="False"] ;
3 [label="petal length (cm) <= 5.35\ngini = 0.12\nsamples = 33\nvalue = [0, 45, 3]\nclass = versicolor", fillcolor="#46e789"] ;
2 -> 3 ;
4 [label="gini = 0.0\nsamples = 31\nvalue = [0, 45, 0]\nclass = versicolor", fillcolor="#39e581"] ;
3 -> 4 ;
5 [label="gini = 0.0\nsamples = 2\nvalue = [0, 0, 3]\nclass = virginica", fillcolor="#8139e5"] ;
3 -> 5 ;
6 [label="sepal length (cm) <= 5.95\ngini = 0.11\nsamples = 30\nvalue = [0, 3, 46]\nclass = virginica", fillcolor="#8946e7"] ;
2 -> 6 ;
7 [label="sepal length (cm) <= 5.85\ngini = 0.5\nsamples = 4\nvalue = [0, 3, 3]\nclass = versicolor", fillcolor="#ffffff"] ;
6 -> 7 ;
8 [label="gini = 0.0\nsamples = 2\nvalue = [0, 0, 2]\nclass = virginica", fillcolor="#8139e5"] ;
7 -> 8 ;
9 [label="petal length (cm) <= 4.95\ngini = 0.38\nsamples = 2\nvalue = [0, 3, 1]\nclass = versicolor", fillcolor="#7beeab"] ;
7 -> 9 ;
10 [label="gini = 0.0\nsamples = 1\nvalue = [0, 3, 0]\nclass = versicolor", fillcolor="#39e581"] ;
9 -> 10 ;
11 [label="gini = 0.0\nsamples = 1\nvalue = [0, 0, 1]\nclass = virginica", fillcolor="#8139e5"] ;
9 -> 11 ;
12 [label="gini = 0.0\nsamples = 26\nvalue = [0, 0, 43]\nclass = virginica", fillcolor="#8139e5"] ;
6 -> 12 ;
}